function [Y,Xf,Af] = treinada2(X,~,~)
%TREINADA2 neural network simulation function.
%
% Generated by Neural Network Toolbox function genFunction, 15-May-2022 00:28:59.
% 
% [Y] = treinada2(X,~,~) takes these arguments:
% 
%   X = 1xTS cell, 1 inputs over TS timesteps
%   Each X{1,ts} = 12xQ matrix, input #1 at timestep ts.
% 
% and returns:
%   Y = 1xTS cell of 1 outputs over TS timesteps.
%   Each Y{1,ts} = 1xQ matrix, output #1 at timestep ts.
% 
% where Q is number of samples (or series) and TS is the number of timesteps.

%#ok<*RPMT0>

% ===== NEURAL NETWORK CONSTANTS =====

% Input 1
x1_step1.xoffset = [1;3.8;0.08;0;0.6;0.009;1;6;0.98711;2.72;0.22;8];
x1_step1.gain = [2;0.165289256198347;1.33333333333333;1.6260162601626;0.0306748466257669;4.84261501210654;0.00694444444444444;0.00460829493087558;38.5579332947754;1.55038759689923;1.42857142857143;0.289855072463768];
x1_step1.ymin = -1;

% Layer 1
b1 = [1.8238013189621413712;-1.9149463313922412411;-1.7295446459711616427;1.5710728389746244638;-1.6630440274082978203;1.45342771360309575;-1.4468947493178974106;-1.4746183352564588009;-1.2264507217540676631;1.1424937905142189543;1.0876667065996448169;-0.97727856821260938869;-0.98031676798974787257;-0.95718910349965236062;0.81007087608307748461;0.5389231875677316097;-0.76557062986934076854;-0.61228604890326765453;0.52087479106829259745;0.56966393285961225423;-0.41628991943357590566;0.119363883907861415;-0.090961724622028450327;0.093025626416665327389;-0.038937976388799006022;0.0034730274511118319758;-0.093532767831091212507;-0.28690415853480605302;-0.24562812672320138985;-0.34571861042574097977;-0.37227039722874410987;-0.66956749484220068336;-0.63806429724731628106;-0.6588887060827215425;-0.72565737311536204768;-0.75264381609947617058;0.94196911021224549732;1.0125524222708710553;1.0518859720070110608;-1.1243517102880096203;-1.3250481486064422665;-1.2737716443935462873;1.3588279826105915671;-1.5564118416319352445;1.5177576410909978666;-1.7092024142644999252;1.7207829803649823397;-1.8431833506126495958;1.7555798229717769487;1.9385552590749319801];
IW1_1 = [-0.29498047630904311589 0.35561724222398238826 0.96491324693669389134 -0.34002133862762384808 -0.07432992154246606531 0.097498859643768226446 -0.93498248249454052328 0.18318578506594329625 -0.64641562102158367509 0.82683590644909765732 1.0030223482585212125 0.040489491556034984399;0.32732241848154541852 -0.2592652817251893671 -0.31399097535019199201 0.65037230834083248343 -0.78724331764719812643 -0.58224278145340691015 0.45285636759549263708 0.81035828484682526085 0.53005487197988976344 0.12084325590624625524 -0.91250952287643705141 0.30053139999640099411;-0.29279816571593658692 -0.65960217733131398798 -0.83984215267117823256 -0.71540272165801210846 -0.43018410305049209486 0.23399823799964231119 -0.37661577977969662445 0.4049610680009806396 -0.31373959353058178401 0.7563559988319493721 -0.58251858821231716767 -0.80301962724432818241;-0.88002480265792248915 0.47488382741999562997 0.96844229215769084274 -0.050210995467113703206 0.34010932812142202764 0.013441760705318909694 -0.8349760721102295058 -0.65279819174095154999 0.75687709614489329102 0.35954088204503786841 -0.63060689398845759523 -0.50019415524946153617;1.0077883629632717888 1.2901719570342535803 -0.16870843293047221856 -0.91348569583082928069 0.12947883444230900984 -0.046447567456424143639 -0.38165442498817381267 0.085568361455112873504 -0.044161395941542155863 0.45532055890645334317 0.21165029658912265509 0.16770392096136316207;-0.46251659937903405462 0.77663325747885103567 -1.1250159336610174865 0.10198256929296244111 0.41621104015212151417 -0.44524553806958544477 1.0086292940793579742 -0.14299428348456397209 -0.052792678278742448394 -0.22202739518819528119 -0.44381114784852510047 -0.66381937070389129829;0.90963688319134095028 0.6781568315532428004 -0.810401717234694563 0.27344038505528023286 -0.6464817478214052171 -0.82444055298327689751 -0.40757665675547344319 -0.10977389861752347155 -0.037418132281307414644 -0.67195273202095107123 -0.38395671365565164912 -0.1825222847060995468;0.80191686224239955294 0.54048670741244897453 -0.027015216704445146195 0.36551931747832105968 0.62485631187787471497 -0.30095131326257901216 -0.46307252009985550023 -0.068029297888073672618 0.78503301448988882516 -1.016405859747199214 -0.7980577853657312426 -0.10387306888693158269;0.12025041156286027377 -1.0088890143492883489 0.21946013360005203752 -0.3946658188691674618 -0.6577092738360287294 -0.62473893207698849572 -0.0080878654717359190623 -0.87606859990727636855 -0.83705797989088437383 0.61213068367021239435 -0.7388245641832474897 0.99469818341187365984;-0.93103152924473286944 -0.93436341621758001175 -0.047867453004026824792 -0.065117243002853056333 -0.68796678278501022241 0.57724441041297858135 -0.15853697082779646954 -0.99597470952164479652 0.28319437251776113929 -0.5063677135178809019 -0.028904552407143933174 -0.35897450528072788467;-0.40546425263839558362 -0.35373086662074787467 -0.00091731660252537816636 -0.65961553198129618814 0.76166738398068178917 -0.29098455807541040441 -0.024248079486410768074 -0.19549831662238736918 -0.5218747816764688352 -0.84189882454541353773 -0.73232931756351826724 0.94344295349090345759;0.54164882987704865425 -0.34385532843495519861 -1.1588899692172154321 -0.023583530661346580048 -0.26811414747055328789 0.1920343647045459623 -0.34745354647164711226 -0.87713139704376952288 -0.29000436636225007669 -0.58235650007658479321 -0.83346785653196153731 -0.21909380443881923406;0.98666890808303131521 -0.73249717828540228393 -0.26771878361301965077 0.3537132421749787925 -0.75782525153276114604 0.070240380619360373582 -0.15006751980607016539 -0.3042159708963871334 0.67903527672989916208 -0.78696122847274918577 -0.097278024979044336318 0.57244583671850024498;0.30369865790205580192 -0.60006501534569611778 0.39888469644869128938 0.38111318504459901213 0.82183164439842060212 -0.63816167950537927567 0.1345131379411355077 -0.31924990439502715089 -0.46904619972685757112 0.19366898480841318597 0.74365685513946355734 -1.0280998412646145113;-0.71950773174313420455 -0.3943279027814539095 -0.52929313894833751597 0.22307985748391978564 0.13466278206432982789 0.12068454402708900242 0.91992379044058836257 0.40964791589518262382 -0.84701852253581999541 0.36466073786922148514 -0.65985336764142499266 0.74060614352399656291;-0.45723108025914593888 -0.42219917670586726288 -0.70174447004251883087 0.062334367995479658675 0.1126051426084458823 0.20203981235652762605 -0.13870487655203600497 -0.91515022152887803841 1.3230738175530580847 -0.046939062493686713184 0.62711617189357493629 0.70305073653455507632;0.087093425545005639932 0.98071470860702025796 -0.018719694064951518386 0.63651515186050600104 -0.62685581470172535568 -0.71964043768953100955 0.099726123994432661068 -0.33630382412404297154 -0.85639837770201798772 -0.17615196150634238048 0.20890316629670233062 -0.55492371415921804001;0.44704371736043069241 0.10007703429683970087 0.51306409743594949546 -0.72166072297718553141 0.93790015244370894543 0.063295800508767000037 0.35081171113179665522 -0.78439739267354779972 0.6021655647566315217 0.035994685006188152643 0.84986964493499239648 -0.47276645097179698096;-0.75264670851269910301 0.76003540191417362504 -0.08991651698043583163 0.063235541508071452244 0.3631403256759802578 0.6453750581895805194 -0.60214413534906974235 -0.64164819177948895224 0.23860072415384797617 -0.82004287974105583015 0.75006651240322552709 0.64264496462198894555;-0.68209620364937995074 -0.62005025593686258212 0.65925863509301296794 0.61686946006588982971 0.17156947644819697807 -0.36840029406981256166 -0.59119416053929196853 0.13627216390896645937 -0.57548770763933065897 0.36368859905111361464 0.56554083338064020658 -0.88149335090120817249;-0.022353724875525810001 -0.41338721006076201148 -1.4058150794783061954 0.19605941918424546477 0.63766513302585936529 0.2588696954041315168 0.17098151992191482074 -0.81289246709928730805 0.0018910148090506354035 -0.64600588477943310384 -0.56887332726164008267 0.15315681231750608027;-0.30623407622648329829 -0.35324417866020707546 -0.66474243421339573867 0.50772185247366263816 0.68977200778307978801 0.70312964476053907426 0.43342447401480865832 -0.80819677175306992023 0.19086515232429518418 -0.56808312205729860622 -0.61038933738563427855 -0.087826606206542409683;0.87628362303622653329 0.49956812702522862546 0.63129264601207524255 -0.85218812483989614392 0.018122716978499285589 0.65294499187486798597 0.59270692062053353943 0.60264363211233795692 -0.80336893128183695101 0.33889729613863284197 0.15059402645493233375 -0.46523044204503849475;-0.82578146551461228952 0.62146151767509461017 0.21633048722895542593 0.51575415618136555285 -0.652127774291805129 -0.21274808969996780728 -0.58207974977155052532 -0.52511206117723541187 -0.935919549220174396 -0.12800763794672345708 0.01456357484672686671 0.91212213943968711849;-0.61861310624276721892 -0.24971533140887616775 0.38511361429087676012 -0.54051694753017054396 0.66728475396402098241 0.90393466119396170821 0.67479493360249764855 -0.073804190954913473366 0.8645569181129127978 -0.40630325727852351081 0.30481761279675212428 0.50982457683046777941;0.69004464564617196132 0.81213197530584424477 -0.21622955361902457261 -0.56237240979024771814 -0.33039396870614279322 -0.6190996227073406466 -0.72879895196262445278 -0.01627591279103091787 0.43782530372268468888 0.63865140536435338614 -0.84934078458372852527 0.2101416198886659481;-0.88825443308017126842 0.66820916965573828872 -0.21263241876369243233 -0.67832256284791614398 0.36966404149158282877 -0.27451869305810211452 0.20807578526048628453 0.38693901518398543526 0.13977383243399876811 0.75945458162794687862 -0.73388279443657067347 -0.67448440589197300454;-0.25752580127207230776 0.024998472016017594249 0.55567086182350922119 -0.012416594955096726949 -0.40350049662175224707 0.045935902133430732419 -0.4549323261794798734 0.53034586219266666163 0.40731790387744659654 -0.90386190242657638017 -1.1978943588304911128 0.57905644499196484709;-0.46488871143488669224 -0.72321615798555982657 -0.085474190352942500115 0.66598493257251645261 0.25143067693533227569 0.82323944608323995631 -0.44928499445775976762 0.21882260810697423681 0.45973465516310274559 0.61668820955494629832 -0.40095173343953932621 0.97376512661319492015;-0.82104647444924605537 0.8352419251695657465 0.47645744594750888412 -0.51121708547230193531 0.21636623937053406364 0.96095947971906070517 -0.70107553540029587946 0.43098421489520793992 -0.34787337598185302801 -0.49734997293380223127 0.20118090292268353547 0.36732315461164433135;0.077106635847774107617 0.7957072738941126655 0.27394677153406005177 -0.68882730467387187634 -1.0310637902707799896 0.1764421592279819262 -0.39581793928589414922 0.61157805677614252016 0.4488974041659521963 -0.55011687996015357083 -0.66539817473482232302 0.7639839537527142177;-0.069105654114972131508 -0.22379921211722569874 0.55537577972231588763 -0.89510082206005969763 0.55686995650004489367 0.74660612818242455546 0.2783718812918269947 0.62483138728517373384 -0.34524989326325367101 0.66101215703500715293 0.6156599301805606439 -0.72237979473613900261;-0.84134615902616072258 0.81302328681983782044 0.65320272962485526058 -0.62350469534570274188 0.4048780216960157774 0.015364651887610172865 -0.96273535439330404362 0.24445049481388458901 0.0016868865579347557589 0.24348512407829334125 -0.2010306042566978868 -0.62275506636022559537;-0.65795490578070647825 -0.21014248532425391924 0.16709018831721228482 -0.64708827137755409176 0.57360144808111301895 0.47807486231510704089 0.74216676115155177929 0.95025617240722581869 0.20001903471712620397 0.87118986749296234429 0.17344090105010190328 0.016551441071554918311;-0.65372384004029948645 0.31480272009052001625 -0.58623148172095951303 0.85372238515903975387 0.81263440097112116245 -0.40422403639573328826 -0.32148704278420137115 -0.48873938578063536031 -0.043441937157274672365 0.11334213978215368357 -0.69333202777036673226 -0.56151472467278629175;-0.065132723492948282895 -0.00010144301896310116071 -0.012561392947341043502 -0.12883016152181209213 0.42871786176063025886 -0.8810399744869542582 0.11095802469355996178 0.41702404963911682279 -1.0979481320845236869 -0.63859588057709293363 0.73306229569470526819 0.75141719747286994657;0.37513424622022117916 -0.31859264221677652262 0.54755165083764600897 0.46856481731301558025 -0.62821985948127112565 -0.62815420957620260456 0.8866803978114330409 -0.74550459786076939128 0.35081959978461119132 -0.5746252735810983836 -0.30527834449555552032 -0.63972129620081608081;0.16646183258447527775 -0.37520837991490452179 -0.38099399379486131867 1.2071536567197407308 0.97965871734652121283 -0.76659778942449929851 -0.50294112409888480641 0.48855759382787444789 -0.45113383148562852254 0.077524619582580014954 0.96181996198667851772 -0.13362735795865723909;0.16313779179516174622 0.39872628646515340112 0.78793900724675280944 -0.083146932096274300816 0.70310520851426816513 -0.78052883172448228599 0.013942052175505852823 0.80558121748735422862 0.80299053395927255661 -0.2115679408763178615 -0.66628935763380514601 -0.47834724164530562085;-0.14868428518970719376 0.3891755173862943562 -0.66327509308520848919 -0.89554047951794024662 -0.71473136089540612037 0.14632502845835335115 0.89501745570625401704 -0.47194788356508965421 -0.39048228859204164864 0.39107486060344104351 0.77716344420319161124 -0.014960915382548081731;-0.46847035335250153398 -0.2558277809990410212 -0.48696799812275670671 0.92136933733326731311 0.22849488148783700381 0.96924495903650886852 0.50219616141039069568 -0.36337750120684070287 0.64180558226537343103 -0.71519039670516149076 -0.4474471158756727629 -0.041921223975206534096;-0.29785269580203377338 0.67505862775704350565 -0.48559392221486624708 0.58791349232435763383 -0.80740748439544618442 -0.85279017419883174078 0.23174551296471149198 0.060178162197326676153 -0.01672721228972715371 -0.18626554155499266963 -0.58342952110728629744 -0.50143822596803833136;0.85128292168866293022 0.7110710679031772008 0.63195099014349809252 -0.056419363448560362617 -0.062979784565809340813 -0.10046579215370780858 -0.4853439400612998833 -0.86535867537632915614 -0.38108875257925006741 0.78365323989893354018 -0.085669793308520300612 -0.69303396392461635855;-0.46968074783094715396 0.28259773586387187949 0.91780386204055253163 0.46060382607493111085 -0.0046628254822185626061 -0.76882328086345319562 -0.3514035326379576496 0.71761740347805835771 -0.59494679286869300849 -0.49173737658182764543 0.26714623576790003101 -0.80865734255433574518;0.66420179248847255327 -0.70503591279571453665 -0.066292191122008459203 -0.65149407723840591089 0.80182489380706456483 0.79720016206632882128 -0.31030793001318385249 -0.6485588099608478041 0.12188516972599981736 -0.56472404269037790314 -0.058536937348925621727 -0.64418313440376240298;-0.77296728703456341059 0.45907245106935479217 0.45907873449489283724 -0.051896710582976970927 -0.36847510766326091458 0.93028381395489989636 -0.87409083745328930437 -0.47927769668455788565 0.35980076571480124059 0.28819078565768746492 0.066197303438241178464 0.63735784002530593284;0.32268052555460213782 -0.052146735785384354389 -1.2459745437455078676 1.0051795306880579872 -0.13540695404795791146 0.19151357550569267363 0.61606234355823896731 -0.66683452528980269314 -0.012401043286024131945 0.34609369820616420199 -0.3555617844454427301 0.30795878695491629706;-0.33210887179170195393 0.17468547166144987592 -0.14639687756053818002 0.19645185222769798172 0.92955533087697828076 0.30481889093280406522 -0.59666357256637236883 -0.64992204337518777457 -0.69214126027746070147 0.28095348052700586106 0.016709698671182101476 0.86816043091102901297;0.76982694606497781287 -0.32231364162644354776 -0.30499856685676901558 0.23931096501679821609 -0.73824184794118252739 0.88462424729774336019 0.3802186333560004794 0.64833952211598055992 0.035416308205257138186 0.22100361915376978694 0.73089891446572718969 0.72269466909400814636;0.06678828315054863296 -0.0031001962275663745398 -0.80603059552520384123 -0.67288071199626520169 0.21658388709778578218 -0.23960388129019785652 0.79491213969802465567 -0.75103126161607736133 -0.82606075462169847867 -0.54426098040885961815 -0.57834519215649649038 -0.19815902119592695985];

% Layer 2
b2 = [-1.5664958242674200672;-1.4646620051973597842;1.4451924222996277436;1.376527288183845954;1.2323737331883541923;-1.2022794853553671057;-1.1192483902684353669;-1.0466507714185173672;1.0403052512380259742;0.9586967749992745258;0.95080274287540278433;0.7671577852772201167;0.76744338914286092113;-0.75866936609111890188;-0.64793226627313682542;0.57570310917259059913;0.52226172250058333635;0.54172147585911878398;0.50710066204628712061;0.40311450602398607446;-0.25241219245094920209;-0.14324401878421694212;0.1802616986470113869;-0.069150772103091950882;0.015215166757147562115;0.035541352422706964931;-0.084304657965202769998;0.1784128112104860775;-0.17199521495632974499;0.25233139302771073753;0.36706954517236517477;0.41665046887816103993;0.4803880629263316826;0.5084519569167985642;-0.5517992498912420718;-0.63464795897561598892;0.68298756116391279303;-0.74478188311167770053;-0.832041125482769095;-0.9317206306528390547;0.99639750030863272201;-1.0367308117158648972;-1.0873636237100363644;-1.1063001542500427998;-1.1335478382179187129;-1.2496918704967823199;1.3235860137500936595;-1.3680077806335666502;-1.4541932106825545823;-1.4911040285102090674];
LW2_1 = [0.20490249504099211642 0.06958373658848369947 0.30940988134141766963 0.14219640312653725189 -0.31462054826190305468 0.53894504814235866252 -0.021930515400253709768 -0.37607427403049775716 -0.097699353052149690013 0.26466445254845677448 0.043235508246962608969 0.28544176814098476402 0.13681899535294253512 0.090941421914034925589 0.29372626752666308736 -0.053224171467026404336 -0.35690911303795175291 0.17304462339633316925 -0.27365827710086176872 0.089348203669217640677 0.14864785500704716381 -0.053101955375795581449 -0.46905794829407365665 -0.028593731793451655776 0.17404360481191838428 0.054435481085308663751 -0.0043360452434623719675 0.012196147707573056634 -0.42144172467396640025 0.34342763996078234934 0.057052258842560640839 0.007751395000643865503 0.21901382975663050146 -0.19883691913893219994 -0.11652127478665424976 -0.27535930610349024228 -0.32891681672993344776 0.13744756191950061042 -0.43187770755388732447 -0.012210619269931787673 0.0033404192162239144948 0.37038344604734418919 -0.045968158060971021917 0.11177179047066847228 0.14743023993301257457 0.29894384491019099226 -0.33911219928171920657 -0.16874743951138990172 -0.24755598026491945629 -0.20987599425695133148;0.15516985340684155692 -0.25768450737066095346 -0.2188173575242415847 -0.030677898440536800068 0.25500435040411828513 -0.13830051947036128834 0.21992103828884687622 0.19628285033930387149 -0.1893087302216241441 -0.29131907913149357459 -0.31313914596602138163 -0.24835896635574719604 0.057961835005666817455 -0.27981758186942945477 -0.20433027480562196421 -0.28662538165290690761 -0.16508342994275954085 0.23367458378479705194 -0.27168999407184635242 -0.31538270481591756944 0.11391914166662631125 -0.20147365745302078799 -0.04458543251465513918 0.17684441014090787614 0.10147809096749677016 0.30955584645687378442 -0.016628011650053925452 0.16430971420223308699 -0.072890750083636463019 0.085548560068061718642 -0.20532502874946520488 -0.19824502667439908299 0.11990539913118031246 -0.28079083198958731948 -0.018813827193935133558 -0.26232857372435786081 -0.33526472526451328582 -0.0024284930201097245338 -0.18478703569672597085 -0.33461139129030281758 0.26263280073480860244 -0.2675532760983950209 -0.088697365881081208228 -0.067407659389101454162 -0.32399079847360723328 0.3422324835433994128 0.23521861155113002462 0.18332343678300039302 0.053655239775772009536 -0.15917677901896001846;0.028737467875484336982 0.17574819188108459223 0.28925262604358648044 0.24029218909401009463 -0.0079151593378154663089 0.043754395605409016068 -0.16431372686224646196 0.023714169104114252162 0.063273426010597516589 0.29748411497498578049 0.40900206843173236848 0.37979307942113760266 -0.31557882196510972372 -0.34950371611763769719 0.23782445340778038401 -0.0094690381312165991523 0.34354842370667293405 0.27119208181998194496 0.30633224754395826928 0.11634008506249324255 0.1723781931624192576 -0.14559312713225691649 -0.034400101207987941743 -0.29418137141487493702 -0.23918891014330900813 -0.12435094654043306328 -0.33804533491848615112 -0.065961373888450955394 -0.084790038757300803529 -0.017343461213803767346 0.34994924588204395777 -0.31194237268094726634 -0.043122637704844236917 0.089729762276700486545 -0.23181926140068240261 -0.24063640750895254339 0.14850563684218370808 -0.16452464930947111044 -0.11280485514368833455 -0.042577643118710054027 -0.20234379937781188374 0.31654077019769133461 -0.24878647005150780758 -0.17044423694884880405 -0.14987897344803410848 0.10364908802235772711 0.11698980906419338688 -0.38414802948925441672 0.10412531413635338351 -0.034425665032085717154;-0.21212626861406558287 0.12108867617535817862 0.037619413163636671038 0.097141636037060441478 0.25047677690211245238 0.17825722903651189388 0.22735040189128533084 0.1790558816442790746 -0.2652068766883737827 0.0037239478308123794177 0.36340096488049250523 -0.16178310381247865135 0.35015065169088954722 0.10932679198187608693 0.10277910914909171858 0.25906362055086928908 -0.29784452378178599696 0.008466317817145506755 0.23325582079273357583 0.023062038392112793606 0.06116252689547241328 -0.10242390977021020859 0.033010287172314863036 -0.19935856820126002242 -0.1955979093311724093 0.36189637602274804529 0.16743110341973219124 0.14774437397816012063 -0.068431214569173684503 0.11017375862998964042 0.37934469904405737628 -0.20005151977176074962 0.068980766911650698292 0.087856504238450414124 0.10400208382852646483 -0.083144496282118840469 0.31000621247181697759 0.063171398047229737616 0.29101977111653992703 0.32960036515130619605 -0.13439140656569867338 0.27707810371417940232 -0.031156188224963982797 -0.38099037727987644653 0.056121623781545434961 -0.40988090992934328449 -0.24795990270335049876 -0.046806388354369059257 -0.24631699480501534349 0.2783406113641665458;-0.3315842833016093838 0.027913537712684132613 0.18800065904104173997 -0.48195085122361108754 0.33387363291681804167 -0.32562229892215599492 0.24502652340465511105 0.19096452999383115023 -0.18790936765068841363 0.17005213671053442948 -0.10127504242120055622 -0.30234132698678412021 0.30823854584307258664 0.16726005988760792031 0.099615805662767800688 0.26026125564539853707 0.10435606893249255167 -0.20324037600347444332 0.06775384025158805168 0.15054068719421861977 -0.20479879550359539331 0.32472323670898295411 0.21393171895240231661 0.053735234347958758805 -0.17851787977239907956 -0.26526071864537653644 0.22428260894194682051 -0.27097069795361117261 0.29421016083708945166 -0.11798213412180191817 -0.0089670892506001267236 -0.04607860328330246058 0.18759853287058830817 0.06723374950003317696 -0.064156912239157967703 -0.0084390271885273256819 -0.20887912656390933419 0.2793654459693519776 -0.22577221392608781692 0.26526086232449191948 -0.2715846017304900939 0.22931442079978778259 -0.05033159799568387438 -0.33049643602315686985 0.17051645078675431444 0.26605472243629851858 -0.085511323579159151387 -0.076514635880223877407 -0.0083086779290567017858 -0.36994055140192011466;0.29621128291004311661 -0.09728014038989510337 0.10268002221581229438 -0.030482280650569321123 -0.0027354483555521664009 0.23526384084035767419 0.18686512676998981441 0.3294358689093521142 -0.2726353306393593523 0.29330176849790562388 0.28423199334201482147 0.29149901852208182085 -0.22015058464927073079 -0.0088725249618587988948 0.1454674679400340398 -0.32474657012921381849 -0.027505570093654337777 0.29471820847305352231 -0.2149656617889266208 0.060270357770237370509 -0.19376089181710348663 0.25544691467316843481 0.058740541278283535387 -0.31479546902036309453 0.2462194613736947979 0.02689841817427235382 -0.18030059769842826656 0.20298667889686242138 -0.33357689201070622742 0.030448389298336726166 0.29999981803737857389 -0.03990509760616960111 0.16265198349118764609 0.25042111254138532672 0.23970450186974867623 0.20104544001294721856 -0.24718747069418720019 0.22877628413410461272 -0.30622889780429618511 -0.21412279776396064834 0.1174496583618883927 0.0052435826615680617216 0.0031643950257721435021 0.33619029482915990803 0.21913771477179810887 0.23161005760869551873 -0.25070311149460305922 0.023862871497984258773 -0.10981326126770354912 0.26017404851604231109;0.2432762226950954676 -0.24878966783454789513 -0.058602786364561162968 -0.31409363482275831636 -0.29613080799076391125 0.27612278658026168099 -0.3705543781683202087 0.28538131473658551185 -0.68298174094244701315 -0.25371279891351611324 -0.031826754665126376354 0.098079949257241227922 0.097663072344782150824 -0.039739845397491459222 0.56120452024675548941 -0.15964206746492051736 -0.20447879747640657078 -0.21479642251033545519 0.19864693923475026938 0.15808548783850973063 0.05037286971662448265 -0.025522999085731943453 0.26741357150291528155 -0.013025981094751717601 0.031673928482157005793 -0.25769411017994114932 0.08932309253441043928 0.11147356366781749348 -0.26458373167290188954 0.23145665054149525131 -0.2042696623953993984 -0.21171592694313645655 -0.10940161546038719431 0.18363388494164012421 0.1861824880510696556 0.051343523589040651611 0.13110059040084995341 -0.57798382544670112715 0.13080599281671834166 0.25933043733491234484 -0.15018317903928832258 -0.53925075393329302553 0.28789460156615420683 -0.34467609121070114098 0.096662151178779548433 -0.16808006278449039161 -0.17199375580444725697 0.14008444842758949189 -0.1311203330257838251 0.070596444939453245615;0.21072181519896693302 0.28005635205824752632 -0.21910108159725560917 -0.12832992131685447279 -0.41084741071160763015 0.20671299503612139414 0.01388206603541484313 -0.34086019127224209679 0.12805886536705624046 -0.076284930881360374366 -0.26091211043704221062 0.27606958035818834896 -0.27068905802904413838 -0.27451240813246297057 -0.06454195115925932813 0.11332709997479555042 0.37290114141957270144 -0.26592230868789434872 0.15059598860715006641 -0.063741154004660419141 -0.31773789554500575516 0.04445618893382728698 0.094960519261709397387 -0.38647639979363085372 0.16437394557353685043 -0.025136251970751612855 0.32634935346012383661 -0.053715711244622224574 0.025937638268893267735 -0.013790987276292000774 -0.31565912771797588476 0.045366163138103945962 -0.15537227031839873082 -0.3782894933046937469 -0.38825120318167283262 -0.18213951844548420533 -0.007511076206790801707 0.099310519697257140792 -0.10953496581633093143 0.29328217619809088257 -0.20029191433685489265 -0.1454640637896447708 -0.30297559317104694188 0.16551530504129996491 0.14657370565939933926 0.00087539541837833648175 -0.22561343540295658583 0.20660390324189681355 -0.19822846490262172048 -0.17802343604760648144;-0.089632903294529137073 -0.13729635562793834902 0.02153160759556990711 0.11127371615293750462 0.14666250864310281798 -0.12631189970484399399 0.26257105480427966882 -0.33205576926657914827 0.30470317775953731365 0.047425421280759168241 -0.080719935243447699103 0.16854434680744051489 0.3263394784369467172 -0.27211154457144498542 -0.24582738917825988634 -0.22334670770751086089 -0.29051786895621589668 -0.22304242429838100348 -0.25725064139955988729 -0.25159058664859984544 0.20299504636092408072 0.16509422253086697419 0.023695672665777128829 0.29928823883317540178 -0.2586538450465473149 -0.24479152515438001858 0.25944088285565680696 -0.1688833820308485445 -0.1200290170928366984 0.28598108853210729707 0.052197922197350463125 -0.077039384318526957229 -0.067975080504152782246 -0.00298463823026121804 -0.3395083789005311492 0.23340513487929567815 0.36762531219884864164 -0.33012492350526007057 -0.28065065483394746604 -0.29517902819133406966 -0.17302432506570641912 0.2482482250860739148 0.061353885247469319708 -0.026547207535162799241 0.039343441043870004681 -0.13458302025090831955 -0.25311348133304317765 -0.1754682659563931435 -0.14965403046769321094 0.09437174009388711593;-0.15594728843515145988 -0.19840836879906470491 -0.21529762377486955094 -0.1583590407933954114 -0.25205807583003658756 0.29376321996854432017 0.18165524562027937638 0.21254807267712444441 -0.04039978617703432473 -0.15849811396818191955 -0.094603754829368072454 0.11713754525473400736 0.035986151895284389235 0.33653123515980110092 -0.055693396912948819888 -0.4072405800699330225 -0.14433516423153761044 -0.087534214303585600181 -0.037212185824389752697 -0.084700288923603678226 -0.1070045747945671949 0.37661109769963424521 0.33478889739031181261 -0.069258015827916019624 0.20630217692936000939 0.0060569909634801437012 0.40512442480240912213 -0.14672362390943266552 -0.23854626228429581802 -0.17123951761535755045 -0.34404138736438427681 -0.3614953708489413442 0.015415636780775617692 0.1612573202075495149 0.32084967921934243185 0.028902365889737709898 0.43243977871173788774 -0.49338321342677665671 0.39221562764505996102 -0.15995858701032886207 -0.26590017216858979898 -0.24066040587363823899 -0.19107476242026441571 -0.23393180528512419469 -0.090713461314849572203 0.2765870522307435353 -0.086086272739226865625 -0.063476425170809674947 -0.27284990548301379931 0.057883751242447205321;-0.35613138321032056233 -0.22029018558310944909 0.15097832259133944777 0.088778830082885507036 -0.14646605435900356129 -0.06031725066763742038 0.30929159727352051323 0.4309409409554960102 0.054373222716143546074 0.3157319309147831321 -0.27180845137200077 -0.17125569801100631873 0.15947679239366266413 -0.38885038697672974495 -0.27085960492313387871 0.19924908035874522305 0.24680944951798702847 -0.041399984384653573666 0.27911848106920233992 -0.090204721342648772064 -0.083174077611454247383 0.040307374906282000815 0.25315999325474392023 -0.49643137204348231073 0.0057068686651554467043 -0.34227069595814835212 0.014561805450089504443 -0.1676415570796835619 0.0073063588381026599652 -0.110216816568345366 0.18530338989300826347 0.28755580961336996149 -0.17679247282723001278 0.044435236131454572406 -0.13151605314832315319 0.16786336011119390443 0.25047986282509115963 -0.29775500219534040136 -0.35835374209950149327 -0.22718656440118403794 -0.038975971955506283351 0.012799931238946182788 -0.076381149098204620396 -0.173685445779046016 0.31814908577837291981 0.16277564132677035946 -0.20947318607044523864 0.32145230832698545864 0.0049724214784493594305 0.24718682600861419107;-0.32740332155042634055 -0.27255366258481028563 0.064704201719356022049 0.29446450325955247918 0.082321901474921424513 -0.27300798512542368002 -0.15861928442071684953 0.019239069190443793683 -0.095876265797102788735 0.27883515172665662707 -0.18049556256292301204 0.30821333026705544089 0.30652201117363220284 0.42095557183598952822 -0.28431927623444774866 0.19982695742200395905 -0.23636189357657724774 0.08120050151887926726 -0.38173050301100008852 -0.25540957449141027391 0.25195424972618379877 -0.07557889733578017355 0.19991410520600910727 -0.4709402000119556897 0.24710295150817271348 -0.27614632241207781593 0.20605433063902908741 0.15094462946052411567 0.078203585171322309577 -0.12541640487321678576 0.18347671006790125525 0.012357304627193799879 0.0802954223705147907 0.42566617414480101278 -0.34123405854773486423 -0.16530822031630773572 -0.27671840603567671169 -0.047121353786471621705 0.21548285835361785656 0.31719363685857560053 -0.037160107166744421603 0.082816545217221843034 -0.30259468089091579035 0.15870086760213900079 -0.35819560619444840155 -0.04822589872066380956 -0.27567211695734467058 0.19064307003360767001 -0.24674422149455144115 -0.43909838644351956161;-0.27005565313239143777 -0.046144956578383730661 -0.45571201771367314537 0.10829326824626846204 0.14817225483424584231 -0.13187925357332855314 0.23523555815233707089 0.11402165169467359807 0.46693085292819636045 0.060895104851462364404 -0.30635324196649355022 -0.032918908097845929472 0.077013797177413814699 -0.24741967013273866161 0.16804564136809371777 -0.36851980368307801772 0.098834663688241439217 0.24796796442337484812 0.38183390293966779083 -0.30903950577926486698 -0.0072037270078521044303 -0.052949538535925329275 -0.21767240665962844792 0.11328902721347791638 -0.070926615457994779401 -0.18315626412602301065 -0.4114622739558467801 -0.007577068139602564055 -0.17694725124773161284 -0.10513461881341232274 -0.37108569588517831273 0.090797039427984588267 0.36225968308772643622 0.085342156609973296444 -0.13813687082325684652 0.052192418492061035118 0.10523567683835012565 0.16390046408213607143 -0.48626932724167026834 0.14217369399090193371 -0.1829065942197193595 -0.19921458475195957805 0.36505917961780981473 -0.1900142082883191641 0.20621535462036652553 0.26485238901803842548 -0.27493829449107942686 0.11071685550970235268 -0.0080723473626503634143 0.19928345356303434066;-0.0047496487767551744813 -0.41523798716516890916 -0.084789479696214295479 -0.025446874201608668531 -0.45859738499245000787 0.12020676978427620452 0.039873090387364230891 0.38571460094135151531 -0.058302353746765150921 0.22778877924075480177 -0.1012190268710018437 -0.15921672616524520927 0.048086114398238122281 -0.063806018246872833743 -0.26267330250731735219 0.052520807905586233688 -0.064345406555882181387 0.39779643530996533496 -0.025493684543992770064 -0.016758829547003851329 -0.31941082620263777647 0.1471526815075337169 -0.037395704653299541298 0.12595426435528472853 0.42426887917407718476 0.022504310586374771247 -0.066036893515321881676 -0.1050503995777212346 0.33341961991799939913 0.47744643378509471487 -0.031785183341398313972 0.04277944966876934263 -0.24193029778368349558 0.10116727027836644459 0.10240747571354991141 0.1544058179829712607 0.24620232688354873329 -0.072406871048931384371 -0.06718787048815301477 -0.24109561284517347368 -0.17866472667789720652 0.020873485067555937189 -0.26185892552701850455 0.39792617674517966053 0.11642648824528704921 -0.22639775973493891925 -0.25439213890616030334 -0.40571630779841971748 -0.31406080183943851925 0.30152388589693635002;0.32835963342354596017 -0.078734695144262470401 0.40415485833207220878 0.33010149618731265964 0.14866219623264248506 0.095619758030628332346 0.20845336978416062479 -0.025983864536822151581 0.1170687894528991968 0.39409301124418993911 -0.16137245372424885437 0.048691247327930807509 -0.1470123163986017667 0.11616678333591065608 0.1887890822953919856 -0.2609974619644524485 -0.34772596760837820584 -0.13053888279745320955 0.070589702675087753758 -0.14855565507636950273 0.048233830761965766631 0.14150893089826255267 0.41467559139317428096 0.13083029809896609685 0.26429691272330174678 0.086951997154731480721 0.36374403374958874657 -0.235032125058611846 -0.39606938680420716858 -0.15708401131673005446 0.077184848785037146746 0.046931789630860767937 0.2720879615451718414 -0.2002034014869323586 -0.022728681345122264679 0.25038637278371411732 -0.23718227032600891491 0.50534421733216083883 0.15197762458829580656 0.31780224357478997765 -0.13365447628955950954 -0.42543121843483833189 0.027722652214564380557 0.012733762299070278123 0.3506702598497670742 -0.093218248058587929727 -0.10024918107843107384 0.28834751099824723619 0.0072775539240346950876 0.045718626140775812938;-0.36329008360719461379 0.30235205388795100001 0.29573613477342586275 0.049334487275865659961 -0.12859135524924525384 -0.018239751271972068358 -0.13830800810899507303 -0.23358761250965698331 0.11346700529358645648 0.1245379457507868326 0.1787624233086269887 0.29019562938119991546 0.1149369296370634369 0.075372130841960580105 0.34809725803858371229 -0.33809887227948770549 -0.41592238266029041283 0.15580424223449487742 -0.11942862913184768003 -0.3646068485131143122 0.032930979171322254107 0.21727763734278282559 -0.074770596140739234436 -0.13121867178899307427 -0.041497898450837976403 -0.1863116146963592068 0.33950978893996136554 0.12005579912316161062 0.029342771756975936925 0.42080161953278116815 0.13977099328237641007 0.12238392351527999091 0.16150317127936641981 0.01358234927467712877 -0.14493996611844994771 0.30061729392396352445 0.17148658904731242658 0.13042382855770187633 0.21751071683461750683 -0.14088162812159921167 0.24286536147446535772 -0.041268244355866359752 -0.35408199803640461045 0.13598614672329326081 0.35833600456749636898 -0.1707325788045420123 0.023306273355244114254 -0.36962619293106718787 0.26370099084920339827 -0.27291795082160269503;-0.11417100368538982136 -0.05190014115288266866 -0.039866300809803800753 -0.23895676907289215007 -0.43231702447633268971 -0.21193691642602061065 -0.10855132322419940027 0.3147934368856662446 -0.075487575404790091538 -0.38673560592845673822 0.030752542014426436506 -0.047491417089944171215 -0.010732815561178785449 0.13222129428936332807 0.032436206637246375872 -0.46744428869153487049 0.15893975165029175511 0.12421150852608318915 -0.047853720971236149428 0.065452322095655407486 0.4670406473314403506 0.18297557946550849217 -0.087775486267511193539 -0.21424360991167909485 0.15885514038355147415 0.051822609488294202329 0.097746418970174525631 0.06976408551340146369 0.26367197311775575352 0.29424157486581675736 -0.47909502460397801471 -0.10428406370665109504 -0.1876950512379162439 0.28352362579474371662 0.34105132797215659268 -0.28333981377390077272 0.29790809246704869073 0.24473174638507416701 -0.10583258688139635106 -0.23173233720171429462 -0.07629665481901190538 0.088798517717218333756 0.41573313419820712156 0.12122432420601396419 0.3209103358279974394 0.22731257185606409954 0.17366178864480910637 -0.099507338434285885764 0.054853755101240506131 0.0030384254492812744902;-0.21588393765930485868 -0.42502840979856210124 -0.20187575516831066103 -0.20602701834868705766 0.29401584453809453956 -0.026109202588595649408 0.21158660165742820825 0.18252820777168229927 0.42245796850263939159 -0.28210688955310325721 0.12805864184289694752 0.1177677122103079066 0.02373000642210639291 -0.20279802983006162131 0.15752335612992818259 0.28293828107667889915 -0.081709901212232885492 -0.30689181397148246333 0.032898178421051832432 -0.061481198239928175342 -0.25527593935376008405 0.10617747571363859993 0.16329937998042526326 0.38868021909037109296 0.17476886210270939359 0.36301786938192986964 0.066347272919031100025 -0.31820894909617969404 0.21584774804718906416 -0.082490604296915043259 0.17408587442529521727 0.17180932777048033011 0.12355807437223581546 -0.19664688194863044757 -0.25189201457289966957 -0.29146187042895804753 0.19188113792643543554 0.26194222492931201751 -0.069687251282766662919 -0.090238632601188736859 -0.051462436116482705717 -0.011284735881343785011 -0.0022871370887354203379 -0.34653416338403136843 0.021750576166600657513 0.11498855848465690255 0.14430396934418149302 -0.34921471587437824535 0.10234535624223829731 -0.18038924020348792721;-0.23327259877517150799 -0.075049574472731209185 -0.042323999771024300998 -0.40485791068747356558 0.30669727395648010981 -0.39667186554205291493 0.31081785989768900835 -0.50697246682154395447 -0.017563901997115386605 -0.31233549927111647904 -0.22389623229694707862 0.2201237415123016572 0.0080017038686545621101 -0.32219675281445658843 -0.1338926190758472079 -0.15552608509404686199 -0.14952272030418145565 -0.27904604011556166654 -0.13380947257419070762 -0.37599710982126444136 0.35372038833065749808 -0.12085731232268596969 -0.40398539393710386491 0.20706015327672278037 -0.16647599633822821041 -0.32605372922316905315 0.34027366615565479702 -0.0037494656229790429211 0.051023829919266960875 -0.28558589448064553018 -0.10445765322796635166 0.28637482568796923665 -0.005273893201575270348 -0.060700214104786757996 -0.086215887419849326911 -0.044244321705839570469 -0.33631585254752138781 0.19565721172197231281 -0.16585641361532402205 -0.028143573177043128275 0.18182069778042100894 -0.059993693045001607322 0.11537185893955748117 0.076141762607855767442 -0.029657558444451864732 0.061628774602779816394 0.45697947707752806235 0.18204339775420289027 0.38733911278968907732 0.33930330157508209465;-0.096285890973556456651 -0.18526195095737754692 -0.22079009726343004627 0.20416075114933890378 -0.1147625028874162123 0.34275772911149771094 -0.34700616567828818093 0.24932385271786478009 0.17468621506768278184 0.11654070218016854277 0.19518579062835977878 0.083491270435902431579 0.047338919775436798243 0.031882185661088996431 0.29009188450953543592 -0.15953152977291701342 0.2065161849300389818 -0.17642478353878321418 -0.035953828789859372528 0.39403843495454171642 0.07485042895475715885 -0.12422560414494004943 -0.45046638289684032275 -0.041449599448217890052 0.2273314644024163611 0.24001602014412901087 0.27841885480663741692 0.035798758592487059382 -0.3068857772442941112 -0.06957667470577204305 -0.25757743002126437526 -0.40772145896576733604 0.023280602672161386513 -0.14891791467317191944 -0.22421348735164259303 -0.26441262834332562859 -0.068707309299644941936 0.28159817038503637265 0.33482741850008135298 0.14084131881700212574 0.094777139417027228552 -0.1760207789332720596 0.35927934403737210589 -0.4165044159272981994 0.30828416711481443357 0.25437789423099921304 -0.1943700419992827888 -0.062697638795539203938 0.045028218019636301328 0.057507877371584227577;0.23973189796244845362 -0.32348532929482803899 -0.34517933229255171046 0.12244477753385366037 -0.030748300129970786848 -0.067544929849133628075 -0.25893061094215735762 0.19027260584004665467 -0.36379227191297336397 -0.13735892376056962894 -0.15014869200651059788 -0.2130462911830545425 -0.091933398793042825359 0.050643910668772995631 0.17214293993722099008 0.36038395619667124015 0.30999923239090693139 0.15085501601119560844 0.29155392860446532888 0.15347367153112120852 0.12877306684233175149 0.075012792127181468493 0.1068877331683688453 0.14140729573189220192 -0.0040623307145476557009 0.1184846098842745471 0.15684088100822607403 -0.28153901921117341356 0.083242257161212751537 -0.060329179943530424068 0.33179712699731495062 -0.1486126972917054534 -0.046889531705679804441 -0.10205334039960703429 0.30076141896459096525 0.33425551714960199945 -0.00091591614806678942409 -0.2338505200668949402 -0.31177767141709600285 0.33273008098765033402 0.15827742397357880133 -0.1162152274126018181 0.1046978760503067124 -0.46766158322347772813 -0.091953232206055335318 -0.16844634163585073261 -0.053107729644083542797 0.17346562552478289598 0.1675503104475059013 -0.32060537704098041045;0.051946136917299233493 0.27001110448497805949 -0.3904983444328712916 -0.22685902699210783173 -0.19120381989591919702 -0.23160392108937233324 -0.35332134726457875562 -0.31036330086809077455 0.22729453088081957857 -0.05791828413748802834 -0.091671925958638947329 -0.14592656170174270192 0.34522244669944801565 -0.16271382789588345608 0.24257745129240054771 -0.29214908199725164728 0.031791691431425003755 -0.026278836860198082764 0.28522308780959693131 -0.18415531619367500604 0.042726164442341695027 -0.15813868524261640025 0.16163921519924126513 -0.31444407672608365445 -0.15896050127292277176 0.23358455315361587035 -0.35592129291861135387 -0.12371090093416892142 0.14629830669565144219 0.3262747750473043995 -0.20794287586128729073 -0.1678944774942183471 -0.36032379610095338629 -0.045536414270404626525 -0.22850346293327011837 0.044194437548698638218 0.16832601590219689602 0.2259284349149811022 0.2217790743725147895 0.039052821584776076236 0.22911119691797510178 -0.076119391873862435327 0.28033512284413819593 0.10376743592992938858 -0.086688804294513213677 -0.066600854614814894439 0.010577620827146461818 -0.37932217495510656136 -0.070993299808437562715 -0.0070908788527952286429;-0.30338676528155678058 -0.11535056390065091814 0.55947286125870565598 0.11050265779522247533 0.076734123066424714255 -0.21638976505108201143 0.12038267348019052183 -0.30090313920463723774 -0.1876625713230872794 0.27279361281651259841 0.20565042676362205176 -0.31624844336451918281 -0.37873894183888556775 -0.0051427239374045013304 -0.057650383033921184794 0.13843727640794817324 0.1056265819471594869 -0.27396642783949654021 0.086677885317252151287 0.15447754926172896361 -0.1336580713564459455 0.24910951671376976857 0.12314768603306770756 -0.24279748378041957069 -0.28722155047255515381 0.29506442791868225939 0.34721110881934741377 -0.3435875787282219318 0.2302608263233332786 0.11676178445759911873 -0.33617965997961202218 -0.076264849447089139156 -0.30721490295314735075 -0.063418944115283759633 0.28334414667991586478 -0.26610559519016119268 0.070140238981948294095 -0.10303548548865973378 -0.47255469660387350306 0.18220001543390157428 -0.30709685460973823456 0.25157234583193660571 0.042296260320379204523 -0.41302379999564470259 -0.070449167730618003636 0.20163682776638056082 0.16345123894448629343 -0.14553695972602911923 0.31382418715424542643 0.34461212669579899259;0.23960485150986515768 0.2499966435870892012 0.23905419849971304425 -0.11825049521630284777 -0.10295998189238186882 -0.17789471378782215072 0.21262576219312756542 -0.16568240936546876907 0.18096682516150394693 -0.055202566131497293744 -0.13239281530841207069 0.23911068498368764912 0.089240970256941304362 -0.00046351881447823095606 -0.21603475853110723492 0.0599028024490925598 -0.38489571561426411117 0.33484160525114192719 0.15607723722984664927 0.52851972167136418435 -0.28194601029006954862 -0.45683578348723208329 -0.24344065889645444267 0.031363248812628891082 0.057861530662366773836 -0.23250759281821195557 0.27397027740988899591 -0.045104450016709859983 -0.32012448582489899662 -0.031752869675522842063 -0.28310061619419224499 0.21259549454906925825 0.48021510011567697385 -0.14264051928967202976 0.036597475363461168252 0.18793377028883964663 0.16334657385979403643 -0.27280879011403025292 0.21110689765855567002 -0.20448189777823991276 -0.46497710149913784594 -0.36279457324397201834 -0.01033432533371801687 -0.027029610674614054644 0.39071839981081418758 0.20682776459879226305 -0.074198022992918805096 -0.33841013846704010026 0.24011862344695988902 -0.33774716949554350887;-0.071753786929630539171 0.24325258173030717135 0.15298939534958794217 0.02977948225017062675 -0.29908169375015858371 -0.045075102444538550639 -0.20731981882266961592 0.2070995626106311438 -0.18695672247773748031 0.13590050850749957334 0.12737733273901888364 0.44818489550982359981 0.050448310716091238071 -0.18820867753757558605 0.25526475552309491057 0.38307539773903059865 -0.23843885919659102424 -0.15593639384245347457 -0.16401981248418875947 0.0057857030663478140747 0.0033039794417331434101 0.03240424025119983259 0.12282869522373596194 -0.15795783031098548088 -0.13001434375067166815 -0.17645750751542063628 0.075478404744198493437 0.30809490519542465092 0.26499675991766485916 0.22465524915592594013 0.21517977668424009829 -0.32245118760310809147 -0.33591597158218144958 0.061078479038573316173 0.17535920345942465626 -0.078706489300377560636 0.16225805405222884503 0.30373823400711674747 -0.24615648219837826804 -0.068555911241632433439 0.19947824010372033898 -0.012883837147824156108 -0.12239461884905968037 0.14142740227422648247 0.012845101030323895566 0.11746062207575411196 -0.18958489254780203082 0.19664662188992654279 -0.048735747518567511249 -0.32304376030321069191;0.025072841350405973559 -0.015065750838855090574 0.24635537153963274482 -0.31118698573345898728 -0.22118622332392190444 -0.075838451519082236696 0.13380929644572053805 0.19130794127412389938 -0.30033716694399592573 -0.33534236991663662897 0.17846314518711553498 0.035800552114255458636 0.28946061886449347966 -0.055025607981420150694 0.34971722660453147258 -0.1337331213942218322 -0.049829225711518869424 -0.18285140741496952455 -0.32846699272503948608 0.16085055066974404681 0.2933404301571351791 -0.20688416701701595191 -0.12630364560885901093 -0.20404035936858147537 -0.34750413836445070981 -0.36063305427006925319 -0.066559158646991148367 -0.05062852069866874416 -0.2593698697460106728 -0.19787788097951622412 0.22056635613083042102 0.029736928980799836458 0.11909516644983063338 -0.092432908887310372137 0.18736820200385187474 0.22486455751285541749 -0.22602445677627519549 -0.093732243860165737059 0.27666029266550917765 0.13167492968111643714 -0.0091717677309920281337 0.047987458808262474508 -0.28890152895794302124 -0.34452595783150818942 0.055594110972595270348 -0.36286547348898662291 0.23983918879469776075 -0.32138406224655097221 -0.086902428838878692519 0.18018480680602078081;-0.00020670458728422585332 -0.26051773833072938702 -0.25646805308544989854 0.059888484566228521178 -0.012256995666572777573 -0.11995894995750371048 0.11445981827040013767 -0.3131930331777522114 -0.10677950131108095155 -0.09518228675550577389 -0.11939528956808054261 0.015152983771023031956 -0.20459294271856187653 -0.085643930150073363516 -0.23285290704355926517 0.11686931998885433104 0.12587242680292229369 -0.27988279729742771007 0.30587207799072441139 0.10637748550880550547 -0.1097371621379425316 0.15334647973361281714 0.22231563583261917949 0.18955555874301982522 -0.18321234017976981145 -0.14387562547513665923 -0.24519252547027464706 0.3251848389537426165 0.26992263612771133507 0.34538051263894414822 -0.25583597960163223517 0.17577285445323395652 0.22449502623777334298 -0.26341354498096636316 0.20495149854028610337 0.34452254194675790977 -0.2041059839821542099 0.28589872785689018908 -0.0092625012604394540983 0.0072814062945967070878 0.13437855276166471574 -0.01296990499099388329 0.35730730508939179124 0.25316075299834939205 0.2770198245827076855 -0.051138784737015718918 0.23092681327513400746 0.30953948381224666297 0.32005573642187923333 0.23366662056578418882;0.25553673305882984579 0.1385049589418234639 -0.24003531961053564681 -0.49591116198895524025 0.12746174888642014533 -0.24090367077624608161 0.01465096844716385141 -0.15051976702654656926 -0.15369543554358458537 -0.15979832394993004341 -0.19063869328257868063 0.091169026083522911041 -0.17355849170715764718 -0.14401858608545742291 -0.23412566434992887476 0.058149306603569449192 -0.086978888324414457833 0.282361454285055824 -0.38553247893537234692 -0.45533487812303630182 0.28832615493464958112 -0.040255726454235377099 0.36500103828842089815 0.066722209502175763851 -0.20674290891940000359 0.32361852354597248071 0.01121209184387255732 0.056654094785170271142 0.050197639790861905973 -0.31500238155386867112 0.13654411726558529638 -0.023799119997730714543 -0.16906040957279941384 -0.38299438622969550483 0.28342375139765585423 -0.21543007021792967559 0.24017597334871129688 -0.29216953870014661376 -0.18009221481149101374 -0.17796831139853372394 -0.22414285384275059454 -0.025209582213979613019 -0.043345006258702030444 -0.040707822261221431048 -0.015219148255316054807 0.23156266560462557269 -0.19200008425907078013 -0.23776873928214961595 -0.013088190431096317912 -0.030883409482556314907;-0.3215670163531910708 -0.11231222408203815621 -0.1348827167988078668 0.044107682581972500191 0.38067216849459822869 0.17563193213753072741 0.13470650719626364733 0.14547236225550502775 -0.010238727681941105566 -0.29117811096870771514 0.19374758557318991214 -0.10059016795535762057 -0.064094846398876220706 -0.01038025241914708463 -0.37326163095002384829 -0.11491308447711977292 -0.13147577994313458527 -0.21120785561348723314 -0.11871822847550775326 -0.27103767931038325045 0.17640684796082164998 -0.058720284226076044365 0.16089382931460669002 0.3681143579802378385 -0.39054100614687525805 0.14080542869833628794 -0.15780916436563224847 -0.032391567456266014136 0.32713378024381478681 0.39367068864955401253 0.20029443972575997068 0.25040612515121052351 0.14689184245044956123 0.074323325164404110965 -0.18092979398610453678 0.16160547152388859971 0.19961999924038600907 -0.56898536557741785646 0.19381849491385469419 -0.22023115535974890911 0.28623686031726086609 0.2115537930517782661 0.2319329924566329304 0.059057773393822801666 -0.35880679632753109676 0.32450109683166700192 0.067769173157302353694 -0.13189177531660345455 -0.17799403432780047662 0.0031990747449333594571;0.19612711022421680518 -0.34774344257445360951 0.39779659821028701128 0.15187717995187002828 0.18955985490697674356 -0.34212413796324625537 -0.15726129419561116207 0.038304009027709140511 0.29079111209774805014 0.22483638375177963931 -0.34639516657167318536 -0.37992983788267398193 -0.083918759027436354292 -0.19515374929525813874 0.076450364883063726129 -0.17019134998592855279 0.24295402910826741083 -0.11557237692719045385 -0.00044149384401734933364 0.28877757668749914899 0.12131318062685927939 -0.17560760171169595423 0.084361398383164865056 -0.31775637640092557756 0.29241119615873600868 -0.036592852365236128165 -0.10052332533197357034 -0.29429503251559230304 -0.12274144653740250155 0.033414909522259006458 -0.34933352991946248212 0.27031951864018188836 -0.080043434396025764377 -0.070241972898767976452 0.025863208638574226861 0.036083171723110575579 0.25381357049275676818 0.13961761888408449894 -0.029995408835792030516 -0.25019061529681690947 0.20971744714578624547 0.1050350168474955409 -0.20516654891962840535 0.1156833715694568776 0.12225860801774461606 -0.37011842749163043065 -0.18390413190995044679 -0.32042190163946526749 -0.22142278479729002316 -0.12383664367563304576;0.25528093708585769539 -0.22489683048021172351 -0.29221735868501153011 0.039030095810562243086 0.14101449043095462543 0.22047577318020927795 0.14441458076819230216 -0.34253017798598756061 -0.05922150306812245385 -0.33118057163526748443 0.0049805968522951687971 -0.22343932873405619732 -0.070919494483653144901 -0.09803104799906454947 0.076154256936206740636 0.36157323828807175214 -0.094364432988634436295 0.32736353386599387205 -0.0081637902066612703239 0.11103417733820475366 0.10324979664016435688 -0.02861733162769210248 -0.35006012833494759562 -0.22778888397741067773 -0.10145165782492475415 0.31776067638356836342 0.45532472928121947575 -0.35179896111934105818 -0.060669085421710303163 0.089244202816771131537 -0.040207506752634278313 0.1082429537358297611 0.22109120567401149837 0.34392088626202715895 0.01835724152663534281 0.108214292672836776 -0.16457634052662323265 -0.069339575338532022375 -0.24836109914026857637 0.24849367962978574642 -0.18055540928205102147 0.17801461136470778102 -0.35676927889633880397 0.13418700537593650224 0.11800944367764973353 -0.042785469908129876437 -0.13109555992427701643 -0.1770246403571174576 -0.20002118082887568318 -0.21500447703530961574;0.070526494232476227841 -0.046432127595266298181 -0.3491874202683027395 0.1083229377010065525 0.33560128461751603801 -0.095615696342705044919 0.016717293505566374612 -0.28313271245744608962 -0.12158137275510229325 0.30591188419964820966 -0.14744247845897445748 -0.20638438194426619865 0.10435758416634144385 0.31547615661825112454 0.25565832386852782587 0.032264247523946958107 -0.15544400344704001338 0.07547923283442271869 0.20173240537412276407 0.28138542819604328571 0.15711036239335957054 -0.0079669542478761137816 -0.095338312049057738484 0.015035083476793002083 0.19314111168343839342 -0.061466364883545634989 0.087368320598180240766 -0.096832666909104511688 0.36060940500390353813 0.1928587662265769942 -0.31877848575013095767 -0.29863589786279282068 0.33358832076032096658 -0.23584510557196447511 -0.31462814725031074126 -0.26096879077675366743 -0.26470205278768182966 -0.24230134902758646009 0.28116677305829024247 -0.2345678675858496598 -0.022923000163247178596 0.0067410447034462889215 -0.32110979960692292989 0.2931903210074028876 -0.039182967544727123621 0.2800992222928407327 -0.13878065838671208021 -0.21580833309794744679 0.21409014115653335342 0.10582456598915812584;0.31800215401182696517 -0.040993468263400369145 -0.14403419864491862068 0.24599340900375762931 -0.26239022946141365988 -0.37376391045449630646 -0.25281789443750446456 -0.11421703961703202901 -0.22576133506136342177 -0.16438821551055743386 0.046451675029516976967 -0.13492536142157146584 -0.06725885428748371031 0.21351647370826432049 -0.21005055149896950661 -0.45895395093556096144 -0.28141067940639707956 0.16325616650630370152 -0.16389779602400947334 0.40993386089374317383 0.10865717510666635104 -0.33197801239046875743 0.31795824283945534061 -0.02693727916092087879 0.016227208034477108578 -0.33905714905692579952 0.37017201975196650787 -0.089708422118457378791 0.23593688124337117151 -0.024249603440706764268 -0.35482699189370958681 -0.22459526295398199447 0.051349661499289073197 -0.27207760830030264243 0.093944231778419026724 -0.1794722990882552105 0.37279915019837750467 0.29626782285241198833 0.0032061911128150755862 0.1577852553375724276 0.072956556151745149963 0.24254718920131834725 -0.27283474817268515977 0.1936873135702835147 0.03423712584264633485 -0.15499216875868543353 -0.36864272329051700483 -0.11384698099347315137 -0.26780894374671038172 -0.30181200122835338817;0.1082976078013054011 0.34359313819625902919 0.01356988688587952574 0.21148650666497062489 -0.2531376521895186138 -0.1793679393414456813 0.10098272473880820499 0.13548647805801125599 -0.1779534620173059134 -0.30688034318600954098 -0.36086513923901414325 0.11316376481937265308 -0.069553167915826025203 0.20958725231056066218 0.11213265228411729846 -0.0880018316719600735 0.22589139099310484582 0.087715379193948686543 0.16182380909223914589 0.0051087514147468045256 0.3339456024989112537 -0.3335843932759382513 -0.17098567616622006859 -0.020260238813111286493 0.1930757512492811967 -0.079556034843348721886 0.29482186695453715952 -0.27669570853747910144 0.21461519440364776323 0.21868357235476193479 -0.13876431488991247676 -0.078834128485237769945 0.19314765354240923112 -0.078505092008453805641 0.067413938884456736655 0.11357077991493225166 -0.31952042540978292662 -0.3141768062467546474 0.25731128742643327723 -0.41771058208826694624 0.084301827904367229727 0.22660916539899597644 0.3573501347775399628 -0.17041968956526609702 0.1768808649156252133 -0.25115349258350505579 -0.39987249034725375063 0.023044265139243499951 -0.34447282036614534917 -0.08799338511535009788;0.0060999235496673508486 -0.10408126835069496374 0.28296968938298744378 0.36809439634446433631 -0.36536553048520298281 -0.18912200348286484219 0.07430650488618963101 -0.095032499487215399414 0.036264011697812750801 0.27759813773168817708 0.056696355571175971466 -0.24456850474430341658 0.15086457745476483661 -0.05162605973828993805 -0.31621537566375368389 -0.26317686575169968455 -0.32945873351241994342 0.0015122502163129082631 -0.17231261289510313439 -0.27959128533508775805 0.19018424983862680655 0.16753641896458743021 -0.146418511042540056 -0.16483460929150278718 0.038276022441811295705 -0.1877495633099019734 0.10300152405916304654 0.048287542613038220152 -0.26296916451606505705 -0.33484182539719370419 -0.23238179915246542917 -0.1609452027197188495 -0.28892198558055087743 0.038520530606874353596 0.17285662875122950743 -0.19940112204837157073 -0.22598912289335731929 -0.25572786994898066837 0.32421929728000653537 0.032678321643689181575 -0.098666035773648005924 0.24115537000122130862 0.25073652606590918213 0.1833635658085467357 0.26188911364385486502 0.10982131702454223099 0.29935805316393904185 0.30397609356176208406 0.064442584060063312634 -0.30181196838619256395;-0.067543404917112623287 0.076172077719373107452 0.069887532786609876667 -0.3477635559849946989 -0.13735502553263131964 -0.22317327482563248386 0.11218528105092397118 -0.10199534429604875663 0.2214124254585735363 -0.32096102248991903449 0.23464792943912765599 0.25056140594281267608 -0.41200840027357171769 0.2692683840786171956 -0.228154551341501588 0.26297244422661297802 0.14939577933179001845 -0.25800077946133204154 0.20739100177437125305 -0.17197603696923161043 -0.14909092339717894271 0.33906838918793646975 -0.23993249080792417027 -0.0653420653344614355 0.0045273563859970500367 0.28891241368710990356 -0.028576823936667980486 0.054164691298002186348 0.36691006380609997306 -0.073839474515844355507 -0.17191275143788758983 -0.38782862161079029173 0.19828880884595945222 0.13481979161206647522 -0.24760928697944525889 0.040650717366285345211 0.016459004286267901046 -0.095870761247424343687 -0.32715515005247508551 0.35532414829143355028 -0.15292840235853855102 0.2383403164236259919 -0.13100334533355822986 0.18079821591085981636 0.17204491137217842178 -0.16320339763194169347 0.24116161697117879936 0.27482098774807833808 -0.15741496227556203702 0.24100725079019133523;0.27616373658710569039 -0.14410491640018519011 -0.20397802844887627516 0.43601875894866765071 -0.23393482950856833713 -0.24831344506685515405 0.16509307848888957193 -0.17570843555288762072 -0.36506752433171374417 0.24647659889046943937 0.22173750764341071395 -0.037191352762868001847 0.11193560250641097775 0.31948988290160212911 -0.24579497143234083079 0.31870316678804616606 -0.24085789979784502646 -0.26470959209540639856 0.30608831746492964898 0.033185195477545871567 0.087594394218093910021 0.2269781860146165009 -0.075316731370382583588 0.049015816546992024838 -0.18549701536402160573 0.21823080465895453028 0.21187100319974205842 -0.14421441317730637754 0.0096276863841809820488 -0.099215601683607518302 -0.28935065998210401927 0.0030896592801138468565 -0.12058851204965040371 0.31925283852637759141 0.35009869699310680602 -0.078467113683651057432 0.18571246199918228781 0.22272507183549089538 -0.20010363795483890326 -0.26040109510334141785 -0.3120440393173912752 -0.48777592437629818667 0.12493854889360153648 0.011485469992340003459 0.034546667974941012991 0.241547289069264981 -0.13902382583158851004 -0.31142264563343330375 -0.10480348173408636503 -0.12365797683482919467;-0.17191165335279603998 0.12205622711610267239 -0.096197864038613523086 0.09901508384026590226 -0.3046995878806622593 -0.22035931186559495898 -0.15080733639244886524 -0.37555135895950308988 0.20597228150430105242 0.059716518086819901645 0.017707693031214343654 -0.024619084173217706951 0.27515403657966969186 -0.14253949739147298015 -0.24886011245392081204 0.060801437596258105234 0.28755255966860804318 -0.33662691803699285042 -0.028799137870724175747 -0.16850936242068267901 0.344597583268444696 -0.025219135810547098353 -0.33467946410196791618 -0.14205811654432776159 0.0096821882844027942761 -0.10303819685582672749 -0.002271313446311949702 -0.23890405540622375313 -0.25168638758591999061 -0.066535760073261090985 -0.17114899250623952232 0.28599413912789872771 0.28086135724097688326 -0.26148714356476682186 -0.44216611030996894049 0.028189372815884145701 0.19536897568147507109 -0.27552139294524435886 0.24225254268137610958 -0.18326966224129456751 -0.37555627657032525368 -0.27242736564301933688 0.36146677762347062535 0.26864131287553560945 0.14633616152491685236 -0.086213347896533509829 -0.11974936929234905603 0.020982349918735678646 -0.14195605778955089349 0.29166321858600102734;-0.061762681111285418212 -0.27887252690133801369 -0.26546966257374304821 -0.38589599068626756484 -0.24430610302255728605 0.0082114627624353085655 -0.18622203152429442352 -0.067456009600946720273 -0.27316593766929214704 0.16878238140652540578 0.0076003239398256114065 -0.50699244900589779395 -0.042166587688218376551 -0.52105496201730461259 0.14733021790509212567 0.21305285837594034604 -0.045871322966691982503 -0.33659319762089717765 -0.024137495955026969097 0.16398634720629745587 0.0051329024147825728225 0.17840168167401607158 -0.20456502964891234986 0.17537777735493106923 -0.27987976083013821338 0.23600921448770176281 0.4489555184373563157 -0.071199028437177777628 0.21819776757395661915 -0.049713417645216514962 -0.05015488051725867924 -0.029769618213220685327 0.11005174748167147192 0.25729463427570259393 0.2085087731442458181 0.17036872348432843816 -0.38818291754499645307 0.11428705480795101068 0.13255237956741636185 -0.36180725462165080897 -0.33700669131256721922 0.13118435937621575338 0.022559508036566092853 -0.24882501505619017412 -0.40437613277275924473 0.029643519683184064994 0.11638951199820823934 0.23246630307094570678 0.35548103833437783017 -0.28404018357532717642;-0.097040313157191707139 0.24439951031760628886 -0.057385600894431697261 0.077104030416759353206 0.24112753952908116961 -0.30454873586637326577 -0.20915070841577235172 0.17304642558247299022 0.33617085117896799984 0.11049643822119586956 -0.0096653765185928195575 0.27633746423455346486 -0.11734724942932901748 0.18897676811553623666 -0.24151620185421615594 0.23305043294671662357 0.15300123665272347129 -0.26596359978171824068 0.080387785606506306779 0.13811917968203554774 0.3382305638188345398 -0.015908686229265601303 0.17930190637853177238 0.054919065941198448588 0.35587656200407646878 0.39181299633993438292 0.091477429099855428474 0.14234627268742552908 0.3231968387754549088 -0.61000297811951575966 -0.062717343859740704026 0.059210071138780739908 0.047077795574294256653 -0.13708352155840042297 -0.019677985469162176391 -0.46395112401034876992 -0.26130791497590954986 -0.23891801541797172415 0.070032310313360462972 -0.47582566004036352947 -0.013934012424221858123 0.041076523957011591703 -0.12539914450140055013 0.048198529686729656152 0.25345882927338381219 -0.26935238223950186409 0.031644404127089846568 -0.019166433290780750254 0.072189268054967184463 -0.081073842990966649147;0.30436641060219471466 -0.41465394491120138865 -0.54909767421256905351 0.11395612651587253006 0.29709926204331876809 -0.056384931462982054717 0.19415074840057822136 -0.47043982680950074959 0.50155126461753329892 -0.055609044536180624041 -0.1806216991820820128 0.10582131534650227045 -0.27890165921814596972 0.28073824757977045019 0.082191084488373339356 0.1506535619793042402 0.16091616510491932313 -0.19780737044013324555 0.36709665260834467571 -0.078010899446882872588 0.26904343182984441496 -0.14552175284621807205 0.48814514511334522462 0.11842221359304815065 0.088627764126866806493 -0.087701512544722484699 -0.045638250844457717292 0.29448309951029544296 -0.25760676105339863629 0.18657745292713387442 0.52776513683655712494 -0.011096938104728944902 0.38523223886174273733 -0.1560687209198219072 -0.03915182091969270084 -0.36316925515598252883 -0.2100860895320978694 -0.09070665875026776015 0.090577306144206837235 0.43936787377767455576 0.20544416124621442399 -0.34251180036456008171 0.24017334796185496604 -0.07686339200250526249 -0.3118927333235769761 0.16646577625452413374 -0.025544927179444083115 0.071297731977228814837 -0.030075355064124096455 0.020520806504078784732;-0.10324425420532053199 0.30403942251215482218 -0.10819445274753339281 0.070757999876569721565 0.10200950618278269155 -0.40338474991521167112 0.3272490659629705978 -0.058587385740150953184 -0.33344674896526621533 -0.21075579571733724094 -0.083415310894003724673 -0.17785700418592606531 0.26037295568912155463 0.18725726258115329981 0.12718589350416806272 -0.17445977430848458312 0.2587044744758130177 0.10694120176470950367 -0.25872413013722139752 0.36697167303610939149 -0.32268648783222708687 -0.076925281703936157496 0.14164277944524472641 -0.16140410790325432355 -0.11301307343113534132 -0.11683311769818566228 -0.38723570377625760042 0.19323908277704407443 -0.19497795802727924119 0.31645598350289072531 0.042796173708006771119 -0.18146812742851306521 0.12025490117992389261 0.21616474115800290989 -0.23970022766295567829 0.3632754657539931098 -0.31987342585986172638 0.32058180451687756651 0.039421982420157576643 -0.26896032441792971923 -0.29175706851529481511 -0.22161947736289855371 0.26588818664537638981 -0.071494479425753015844 0.062482376356986495114 -0.33623050415436156468 -0.33862926273101562336 0.26115734268468587809 -0.15273742562194012051 -0.03054716524240088521;-0.38388676341021971128 0.030133867787976671704 0.068594594998969984911 0.05556119179995006041 -0.38450706045571009239 -0.17598429908873811089 0.18841925751719770799 0.10603967203373923511 0.26775483714286885117 0.042145184429217254218 0.2932188755021524762 -0.31617177324399342586 0.32911207133224407162 0.15110688669142327556 -0.041136015398676860355 -0.19837458178478215021 0.31964118563440002685 0.14150869112629457791 -0.22019779089826430063 0.085006174605001996736 -0.18305512925409833658 0.27555264450403965659 0.18399090418729718843 -0.046243127190600016863 0.27531708135048443831 -0.037352838267032409392 0.17013398358520850917 0.072524349414103808642 0.079431040218808493525 -0.022375060428598686491 0.19441926576584109276 0.050216409869750795736 -0.1334398439290974403 0.094818568374379089136 0.39261914383508561555 -0.31077703602614475953 -0.25599976885713798813 0.44076717461078668281 0.19593876636661564095 -0.15663049679963034211 -0.023381460587425895864 -0.053868147722743543737 0.02851943630629923121 0.32008267647461208227 0.034586640129604863392 -0.28226268620594557879 -0.27220036306226380596 -0.044599508194689427287 0.04566369916800756823 0.11887714565097216857;-0.2745588322199631337 0.057790988786009890588 0.40561133274330063436 -0.22538786298386823126 0.071543838954558333643 -0.085514628150063151657 -0.18030800965166093874 0.16031306212751567086 -0.07017459335633649542 0.15803492588035614186 0.12396757042704371898 0.065747067641049872222 -0.34988244905753923542 -0.34904421978609534438 0.23764915741107262015 -0.27402892566227843307 -0.28111350129635659378 -0.048842753390050994144 0.18082634823699755833 -0.10080972605170318568 -0.25305981454003612097 -0.094891076195873350074 -0.10580549760519089575 -0.44986605737414114836 0.098156078082252795625 -0.2888215774610062847 0.25935420705595962909 -0.31889850004756004065 -0.064625542272253783116 0.099184375530017368505 0.27027411379273091896 0.067681815649801232992 -0.37863224239453918685 -0.21453481758195197537 0.28424243382963720883 -0.36949295876273147154 0.034878256241964465667 -0.052553170258435449869 -0.043117324085833602654 -0.37605619006995122389 0.28304290512626378851 -0.15857567830006930043 0.26977366702602884052 -0.20440170894161979742 0.020960436305404960694 -0.039917560030740928401 -0.098344216806564521693 0.16649300559965637958 0.34750450750930311772 -0.014464598681034085415;-0.039553025772229306878 -0.081933373632650352558 0.070141277374370050723 -0.22320349426313540464 -0.0054578445604492788895 0.53439816754464353199 0.15153986250138118397 0.12210915525066597109 0.37268839495418132346 0.22128246568008347328 0.14995170846037120249 -0.094352137874406050155 -0.23219275003809358715 -0.022533655010901751381 0.47433838622205071189 -0.095360223499801499702 0.065913919791766903411 -5.9520197338691583841e-05 0.33703773545337456508 0.25003401022722426816 -0.16315678214510556665 0.38109159134368475463 0.06508408165038248594 -0.56522845153105727434 -0.29333085759611471355 -0.19874604452439390001 0.20443653059379421344 0.19738979213539409319 0.46434816312494059387 0.17726425852314312004 0.074886605543414697106 0.34763331632138427807 -0.22010752036933520226 0.19669763182812330382 0.0026427051748943442 0.14425374483127470504 0.092044556936920790546 0.71549864551315167649 0.41269844108944231387 0.083545166122234837403 -0.24197941276656675935 0.08722669213684827727 -0.01233987719263140298 -0.041500118804511237913 -0.1327387416605282644 0.038927670899987824871 0.29805768575096958095 0.2224986719552709824 0.25079523309607143489 0.16447875730985500597;-0.24892138734092261743 0.29630510984996172308 -0.22229641729823046425 0.12322812419742619483 -0.3523429552044634594 0.05505097391452011546 0.15923390721540325865 0.29682697837466454072 -0.1207240314429663397 -0.08309647671345354869 -0.085078088485256941897 -0.019444913140039668531 0.30916731857724344401 -0.31820337343095311811 -0.24530924799940884151 -0.29712160018061334332 -0.25867856288271606768 0.33656581130346990838 -0.28986897216074203332 -0.049276210618603141778 -0.29014890356253147941 -0.069074082669055250627 0.16057231208873029571 -0.017521886009994661754 -0.072521292206060669616 0.21252157624718409634 -0.067891046108682559512 0.24161860933269099783 0.25790422738520840662 0.37583456155545269528 -0.12237535370908164678 0.13129637626239790138 0.27124845975483152793 0.26311902555646793367 0.060567123235117113766 0.3797263614223223005 -0.010198187777661550657 -0.045575696224842560111 0.12134661413637938543 -0.10385085099988974888 -0.28055947990145868598 0.038825990019966359623 0.15261302277325536347 -0.14443223261959955983 -0.23303794526252688546 0.060566049395019805335 0.26014014117505407375 0.34676917045815019991 -0.054945725730458007396 -0.163317344332011255;0.35202779380935089737 0.11560955602972126932 -0.20847983048917675952 0.31578535915637839793 0.1216191359625510976 -0.17009585967040288801 -0.073274881723116150334 -0.33472932623254098017 0.46967347358161354309 0.31431928533257946778 -0.22063548937558399854 -0.30713480058469938561 0.12911911365563985554 0.31333471639763466055 0.22263974236943526175 0.24139050824256069738 0.18197374993390125208 0.29159896306499760721 -0.020512902177091320299 -0.1291562324384610827 -0.475699075275209049 0.057580113925170574307 0.23040324851006907525 -0.0050914337276099300156 -0.14293511654990390114 -0.27170003237636608517 -0.055224894536005153522 -0.20432263244122464418 0.061021767666944816411 0.023346703990469577783 -0.44326729633080103055 0.087992909945400807348 0.29496296968783364267 -0.34054746056251383735 -0.00014214799057928918791 -0.025315741228819639563 0.31763542146623979789 0.22727855201051824774 -0.088494183448701302375 0.028372981336823210191 0.14574975960219818671 -0.015682183153024154693 -0.15155789631642824222 0.14006236566328933435 -0.35190294603747906965 0.30714102557645739378 -0.17144143608071751861 -0.074861494980837203772 -0.16219571617174957656 -0.1607849845217155238;-0.15617036930563363284 -0.16277488706055018297 -0.24920366942064436921 0.11653643981494944681 0.50660795284192183807 0.28184238930942850931 0.12725027173274922054 0.23483135735084542661 -0.2073131711915744968 -0.2156850189688012398 -0.034726679078829938985 0.20419818937707087669 -0.34653667865474313547 0.29013639243782207711 -0.38760555170503002698 -0.067922340914017095836 -0.35999828640817377323 -0.061342356936226867525 0.086258516530315063053 -0.38595100821710254246 0.479786533206304322 -0.060006732620245070708 0.23336046438488830534 0.064738319241051847652 -0.33553174583105294104 0.11588990292910228419 -0.28756229683764739091 0.28392047315266855101 -0.15696059240622706188 0.09830778052891878116 -0.15842422004230116706 0.0047865822308213387681 -0.242183341301968863 0.3118586767932308712 0.21601101334470043658 0.12006960568369211273 0.18474017376503826249 0.26297512410484291667 0.099164058244092606609 -0.41609158167963833375 0.27976305397478601344 -0.1556372679834864825 -0.10931905883453654771 0.30923263866628852847 0.14308761944937137267 -0.1484797692501793609 0.12174237511147445456 -0.17978598406790738395 -0.21590868751040076523 0.33531093819007251611;-0.077467965266736729668 0.014857164563250526909 0.30413189458964029477 -0.096737150838563490396 -0.15680443291589440946 0.29035683130625128401 0.31108829587380498749 0.24973161498618504095 0.070774174232013598029 0.062297346048138788066 0.039600050035889115818 -0.28299499864251709269 -0.14433928094171463719 -0.015111767602455482978 -0.20393372805497389511 -0.061413298045448733165 -0.18310018521715815121 0.28854576382698488013 -0.36752627371190166317 0.092114804487786985931 -0.097462557878148087243 0.18050943530941310211 0.24221045086960787951 0.2532719870688973085 -0.34638173751106637877 -0.22381142294022851602 0.39844638728796832883 0.25896837494267488378 0.2461475120450186127 0.28226264840982567828 -0.06661401896280742807 0.060145053459367707471 0.13644598261949233975 0.34364763188181535192 0.24511834053659575794 0.0047666872165025957198 0.0760794047514078281 -0.14775590726602991221 0.055354404613149624237 0.1391995335378806431 0.14423865350909165217 -0.081094186222431585698 -0.23896477958687517562 -0.18560667271984102045 -0.30979569055840439074 0.35699743536657679854 -0.0092516403659275922577 -0.27748119244190916355 0.34938906558866394958 0.062362838212591288622;-0.10253188086264450329 -0.005810947170233194195 0.36386281962334465767 0.034508511935328591014 -0.055703054023252977778 -0.096595533523740617632 0.14204093500450151732 -0.26613473702189333059 0.18591690667535637482 0.10124649678390337804 -0.20985855950647802626 -0.048616474280535816599 0.28293747510826411373 0.20100854985568691879 0.30581778528467640221 0.25963793955909186817 -0.3953281814011473938 -0.34114684895592034541 0.095361986629316913833 -0.27512671497407226173 0.085663560232578331299 0.19023585815168697621 0.14183261824803636286 -0.14793834943321032549 0.11398630569760508091 0.24352701592309916601 -0.31622395432690325601 0.10689585266615929393 -0.36577794463316676277 0.098092735576896530891 -0.3091985961816879902 0.26710657060612108538 0.0072778651220021372409 -0.10240826641487935089 -0.2310184183798805746 -0.38271633429432827533 -0.10610525906230022786 0.24691238175526197818 0.21250563644797709761 0.1355502346699803129 -0.38465308798577335647 -0.14206342896249979368 0.36579299577149076983 0.32094279331471192718 0.11847414000742180484 -0.2095073446454708832 -0.10244827040924882333 0.23832287362930631991 -0.16517811979294569347 -0.32422456996284099162];

% Layer 3
b3 = -0.64443289521574764755;
LW3_2 = [-0.88894387890258619311 0.12025823820401722319 -1.0315494956090192069 -0.082723363844235425768 0.20439111414293029134 -0.02514676832237978249 -0.72297935546768399284 -0.44566766073232050305 -0.11306946752685807789 0.23509162257255777906 -0.72608615430276157721 0.93644364178086914041 -0.80143858402067624791 0.80286240559130339633 0.86644415634906635226 0.26054861771270043658 0.43365086310983785856 0.011891313507837357813 -0.7524341747810474601 -0.73413838445933876642 0.57692517415564559258 0.011647340729417315561 -0.59644666700444881613 -0.75548437541130342154 0.39311910157948604105 -0.17238766955947898429 0.0084102601203673715835 -0.38380948013183696643 -0.51750099707141061778 -0.079909057403509231587 -0.11987054921694099974 0.021152279164839776771 -0.74231680611953487769 -0.33045264580291150436 -0.040378494728217084742 0.32187335054965054981 0.65285603229207778142 0.048803972358881980709 -0.74793885734905440899 -0.59295378658456854293 -0.76057860535711152572 -0.45803585602248908515 -0.7725926533789082562 0.51353659870839374335 -0.86346849744735887366 -0.8703978353111800903 0.46227495141314478566 -0.611967145977820981 -0.82498921923469703543 -0.58523702106265385048];

% Output 1
y1_step1.ymin = -1;
y1_step1.gain = 0.333333333333333;
y1_step1.xoffset = 3;

% ===== SIMULATION ========

% Format Input Arguments
isCellX = iscell(X);
if ~isCellX
  X = {X};
end

% Dimensions
TS = size(X,2); % timesteps
if ~isempty(X)
  Q = size(X{1},2); % samples/series
else
  Q = 0;
end

% Allocate Outputs
Y = cell(1,TS);

% Time loop
for ts=1:TS

    % Input 1
    Xp1 = mapminmax_apply(X{1,ts},x1_step1);
    
    % Layer 1
    a1 = tansig_apply(repmat(b1,1,Q) + IW1_1*Xp1);
    
    % Layer 2
    a2 = tansig_apply(repmat(b2,1,Q) + LW2_1*a1);
    
    % Layer 3
    a3 = repmat(b3,1,Q) + LW3_2*a2;
    
    % Output 1
    Y{1,ts} = mapminmax_reverse(a3,y1_step1);
end

% Final Delay States
Xf = cell(1,0);
Af = cell(3,0);

% Format Output Arguments
if ~isCellX
  Y = cell2mat(Y);
end
end

% ===== MODULE FUNCTIONS ========

% Map Minimum and Maximum Input Processing Function
function y = mapminmax_apply(x,settings)
  y = bsxfun(@minus,x,settings.xoffset);
  y = bsxfun(@times,y,settings.gain);
  y = bsxfun(@plus,y,settings.ymin);
end

% Sigmoid Symmetric Transfer Function
function a = tansig_apply(n,~)
  a = 2 ./ (1 + exp(-2*n)) - 1;
end

% Map Minimum and Maximum Output Reverse-Processing Function
function x = mapminmax_reverse(y,settings)
  x = bsxfun(@minus,y,settings.ymin);
  x = bsxfun(@rdivide,x,settings.gain);
  x = bsxfun(@plus,x,settings.xoffset);
end
